FANN_FLO_2.1
num_layers=3
learning_rate=0.700000
connection_rate=1.000000
network_type=0
learning_momentum=0.000000
training_algorithm=2
train_error_function=1
train_stop_function=0
cascade_output_change_fraction=0.010000
quickprop_decay=-0.000100
quickprop_mu=1.750000
rprop_increase_factor=1.200000
rprop_decrease_factor=0.500000
rprop_delta_min=0.000000
rprop_delta_max=50.000000
rprop_delta_zero=0.100000
cascade_output_stagnation_epochs=12
cascade_candidate_change_fraction=0.010000
cascade_candidate_stagnation_epochs=12
cascade_max_out_epochs=150
cascade_min_out_epochs=50
cascade_max_cand_epochs=150
cascade_min_cand_epochs=50
cascade_num_candidate_groups=2
bit_fail_limit=3.49999994039535522461e-01
cascade_candidate_limit=1.00000000000000000000e+03
cascade_weight_multiplier=4.00000005960464477539e-01
cascade_activation_functions_count=10
cascade_activation_functions=3 5 7 8 10 11 14 15 16 17 
cascade_activation_steepnesses_count=4
cascade_activation_steepnesses=2.50000000000000000000e-01 5.00000000000000000000e-01 7.50000000000000000000e-01 1.00000000000000000000e+00 
layer_sizes=27 4 4 
scale_included=0
neurons (num_inputs, activation_function, activation_steepness)=(0, 0, 0.00000000000000000000e+00) (0, 0, 0.00000000000000000000e+00) (0, 0, 0.00000000000000000000e+00) (0, 0, 0.00000000000000000000e+00) (0, 0, 0.00000000000000000000e+00) (0, 0, 0.00000000000000000000e+00) (0, 0, 0.00000000000000000000e+00) (0, 0, 0.00000000000000000000e+00) (0, 0, 0.00000000000000000000e+00) (0, 0, 0.00000000000000000000e+00) (0, 0, 0.00000000000000000000e+00) (0, 0, 0.00000000000000000000e+00) (0, 0, 0.00000000000000000000e+00) (0, 0, 0.00000000000000000000e+00) (0, 0, 0.00000000000000000000e+00) (0, 0, 0.00000000000000000000e+00) (0, 0, 0.00000000000000000000e+00) (0, 0, 0.00000000000000000000e+00) (0, 0, 0.00000000000000000000e+00) (0, 0, 0.00000000000000000000e+00) (0, 0, 0.00000000000000000000e+00) (0, 0, 0.00000000000000000000e+00) (0, 0, 0.00000000000000000000e+00) (0, 0, 0.00000000000000000000e+00) (0, 0, 0.00000000000000000000e+00) (0, 0, 0.00000000000000000000e+00) (0, 0, 0.00000000000000000000e+00) (27, 5, 5.00000000000000000000e-01) (27, 5, 5.00000000000000000000e-01) (27, 5, 5.00000000000000000000e-01) (0, 5, 0.00000000000000000000e+00) (4, 5, 5.00000000000000000000e-01) (4, 5, 5.00000000000000000000e-01) (4, 5, 5.00000000000000000000e-01) (0, 5, 0.00000000000000000000e+00) 
connections (connected_to_neuron, weight)=(0, 2.07446664571762084961e-01) (1, -3.13514304161071777344e+00) (2, 1.45510768890380859375e+00) (3, -2.86035060882568359375e+00) (4, 2.95364570617675781250e+00) (5, 6.65139436721801757812e+00) (6, -1.33502215147018432617e-01) (7, 4.06539618968963623047e-01) (8, -1.99024721980094909668e-01) (9, -1.27354717254638671875e+01) (10, 5.97615912556648254395e-02) (11, 2.58511424064636230469e-01) (12, 2.21249294281005859375e+00) (13, 1.54988992214202880859e+00) (14, 1.45870566368103027344e-01) (15, 8.69215607643127441406e-01) (16, 3.93317294120788574219e+00) (17, 8.18098843097686767578e-01) (18, 3.72608117759227752686e-02) (19, 5.30672907829284667969e-01) (20, 7.49622058868408203125e+00) (21, -6.01418256759643554688e+00) (22, -1.82644653320312500000e+00) (23, 7.55623779296875000000e+02) (24, -3.20052032470703125000e+01) (25, -1.26551074981689453125e+01) (26, 8.89310419559478759766e-01) (0, 1.28339195251464843750e+01) (1, 3.67488646507263183594e+00) (2, -1.80890905857086181641e+00) (3, -1.74218499660491943359e+00) (4, -4.82797622680664062500e+00) (5, -7.75927972793579101562e+00) (6, -3.21505928039550781250e+00) (7, 1.19456186294555664062e+01) (8, -1.64271724224090576172e+00) (9, 6.33557014465332031250e+01) (10, 2.83709526062011718750e+00) (11, -1.18507754802703857422e+00) (12, 2.64222890138626098633e-01) (13, -2.80555057525634765625e+00) (14, -1.11908841133117675781e+00) (15, 3.22655320167541503906e+00) (16, -3.51435995101928710938e+00) (17, 3.16493916511535644531e+00) (18, 6.41289532184600830078e-01) (19, -3.20500522851943969727e-01) (20, -1.30148096084594726562e+01) (21, 1.51549637317657470703e+00) (22, 1.44178066253662109375e+01) (23, -1.32095031738281250000e+02) (24, 1.04160051345825195312e+01) (25, 6.32945747375488281250e+01) (26, 4.71828103065490722656e-01) (0, 2.15428423881530761719e+00) (1, 1.44240403175354003906e+00) (2, -4.02848780155181884766e-01) (3, -4.23210906982421875000e+00) (4, -9.94454503059387207031e-01) (5, 1.77670249938964843750e+01) (6, 1.04725418090820312500e+01) (7, 1.25822048187255859375e+01) (8, 9.34812009334564208984e-01) (9, -2.99470825195312500000e+02) (10, 2.51886215209960937500e+01) (11, -3.62712711095809936523e-01) (12, -2.68181920051574707031e+00) (13, -3.09647530317306518555e-01) (14, -4.07748281955718994141e-01) (15, 5.71642875671386718750e+00) (16, -6.53576431274414062500e+01) (17, 7.58466434478759765625e+00) (18, 8.20903003215789794922e-01) (19, 1.62533819675445556641e+00) (20, -1.31814801692962646484e+00) (21, -3.10977697372436523438e-01) (22, 2.44341793060302734375e+01) (23, -1.20803794860839843750e+01) (24, -2.63595819473266601562e+00) (25, -2.99333801269531250000e+02) (26, -2.31939911842346191406e-01) (27, 9.81698453426361083984e-01) (28, -1.70472729206085205078e+00) (29, 2.45203316211700439453e-01) (30, 5.06232440471649169922e-01) (27, 4.02747184038162231445e-01) (28, 1.32729053497314453125e+00) (29, -1.90126991271972656250e+00) (30, 4.01120245456695556641e-01) (27, -2.35017210245132446289e-01) (28, 3.78877234458923339844e+00) (29, 3.37748599052429199219e+00) (30, 1.27568376064300537109e+00) 
